<?xml version="1.0" encoding="UTF-8"?>
<PMML xmlns="http://www.dmg.org/PMML-4_4" version="4.4">
    <Header copyright="Copyright (c) 2018 Software AG" description="Default Description">
        <Application name="Nyoka" version="4.3.0"/>
        <Timestamp>2020-12-04 14:25:25.420141</Timestamp>
    </Header>
    <DataDictionary numberOfFields="7">
        <DataField name="creditScore" optype="continuous" dataType="double"/>
        <DataField name="income" optype="continuous" dataType="double"/>
        <DataField name="loanAmount" optype="continuous" dataType="double"/>
        <DataField name="monthDuration" optype="continuous" dataType="double"/>
        <DataField name="rate" optype="continuous" dataType="double"/>
        <DataField name="yearlyReimbursement" optype="continuous" dataType="double"/>
        <DataField name="paymentDefault" optype="categorical" dataType="integer">
            <Value value="0"/>
            <Value value="1"/>
        </DataField>
    </DataDictionary>
    <TransformationDictionary>
        <DerivedField name="standardScaler(creditScore)" optype="continuous" dataType="double">
            <Apply function="/">
                <Apply function="-">
                    <FieldRef field="creditScore"/>
                    <Constant dataType="double">583.4650000000000318</Constant>
                </Apply>
                <Constant dataType="double">155.2687066829630282</Constant>
            </Apply>
        </DerivedField>
        <DerivedField name="standardScaler(income)" optype="continuous" dataType="double">
            <Apply function="/">
                <Apply function="-">
                    <FieldRef field="income"/>
                    <Constant dataType="double">188260.2237500000046566</Constant>
                </Apply>
                <Constant dataType="double">70554.6532953793648630</Constant>
            </Apply>
        </DerivedField>
        <DerivedField name="standardScaler(loanAmount)" optype="continuous" dataType="double">
            <Apply function="/">
                <Apply function="-">
                    <FieldRef field="loanAmount"/>
                    <Constant dataType="double">280234.1937499999767169</Constant>
                </Apply>
                <Constant dataType="double">214638.9316920714336447</Constant>
            </Apply>
        </DerivedField>
        <DerivedField name="standardScaler(monthDuration)" optype="continuous" dataType="double">
            <Apply function="/">
                <Apply function="-">
                    <FieldRef field="monthDuration"/>
                    <Constant dataType="double">18.7800000000000011</Constant>
                </Apply>
                <Constant dataType="double">7.3682833821725398</Constant>
            </Apply>
        </DerivedField>
        <DerivedField name="standardScaler(rate)" optype="continuous" dataType="double">
            <Apply function="/">
                <Apply function="-">
                    <FieldRef field="rate"/>
                    <Constant dataType="double">0.0758500000000000</Constant>
                </Apply>
                <Constant dataType="double">0.0107367360030877</Constant>
            </Apply>
        </DerivedField>
        <DerivedField name="standardScaler(yearlyReimbursement)" optype="continuous" dataType="double">
            <Apply function="/">
                <Apply function="-">
                    <FieldRef field="yearlyReimbursement"/>
                    <Constant dataType="double">30814.5724999999983993</Constant>
                </Apply>
                <Constant dataType="double">22035.9829526559515216</Constant>
            </Apply>
        </DerivedField>
    </TransformationDictionary>
    <RegressionModel modelName="SGDClassifier" functionName="classification" normalizationMethod="logit">
        <MiningSchema>
            <MiningField name="creditScore" usageType="active" optype="continuous"/>
            <MiningField name="income" usageType="active" optype="continuous"/>
            <MiningField name="loanAmount" usageType="active" optype="continuous"/>
            <MiningField name="monthDuration" usageType="active" optype="continuous"/>
            <MiningField name="rate" usageType="active" optype="continuous"/>
            <MiningField name="yearlyReimbursement" usageType="active" optype="continuous"/>
            <MiningField name="paymentDefault" usageType="target" optype="categorical"/>
        </MiningSchema>
        <Output>
            <OutputField name="probability_0" optype="continuous" dataType="double" feature="probability" value="0"/>
            <OutputField name="probability_1" optype="continuous" dataType="double" feature="probability" value="1"/>
            <OutputField name="predicted_paymentDefault" optype="categorical" dataType="integer" feature="predictedValue"/>
        </Output>
        <RegressionTable intercept="-4.2168086639693634" targetCategory="1">
            <NumericPredictor name="standardScaler(creditScore)" exponent="1" coefficient="-0.3775314905901354"/>
            <NumericPredictor name="standardScaler(income)" exponent="1" coefficient="-4.4915279148008480"/>
            <NumericPredictor name="standardScaler(loanAmount)" exponent="1" coefficient="6.3507539023095392"/>
            <NumericPredictor name="standardScaler(monthDuration)" exponent="1" coefficient="0.4459768302556588"/>
            <NumericPredictor name="standardScaler(rate)" exponent="1" coefficient="-0.3693524520285792"/>
            <NumericPredictor name="standardScaler(yearlyReimbursement)" exponent="1" coefficient="0.6002720759537469"/>
        </RegressionTable>
        <RegressionTable intercept="0.0" targetCategory="0"/>
    </RegressionModel>
</PMML>
